<?xml version="1.0"?>
<opencv_storage>
<!-- Created using Computer Vision System Toolbox(tm) for MATLAB(R) -->
<!-- Version 8.4.0.150421 (R2014b) -->
<!-- Compatible with OpenCV 2.4 -->
<cascade>
  <stageType>BOOST</stageType>
  <featureType>HAAR</featureType>
  <height>20</height>
  <width>40</width>
  <stageParams>
    <boostType>GAB</boostType>
    <minHitRate>9.9500000476837158e-01</minHitRate>
    <maxFalseAlarm>2.0000000298023224e-01</maxFalseAlarm>
    <weightTrimRate>9.4999999999999996e-01</weightTrimRate>
    <maxDepth>1</maxDepth>
    <maxWeakCount>100</maxWeakCount></stageParams>
  <featureParams>
    <maxCatCount>0</maxCatCount>
    <featSize>1</featSize>
    <mode>BASIC</mode></featureParams>
  <stageNum>5</stageNum>
  <stages>
    <!-- stage 0 -->
    <_>
      <maxWeakCount>18</maxWeakCount>
      <stageThreshold>-1.3131307363510132e+00</stageThreshold>
      <weakClassifiers>
        <_>
          <internalNodes>
            0 -1 144 2.3231338709592819e-02</internalNodes>
          <leafValues>
            -7.1394938230514526e-01 4.6898263692855835e-01</leafValues></_>
        <_>
          <internalNodes>
            0 -1 9 -3.2327696681022644e-02</internalNodes>
          <leafValues>
            5.7320082187652588e-01 -3.9914566278457642e-01</leafValues></_>
        <_>
          <internalNodes>
            0 -1 55 -6.4938873052597046e-02</internalNodes>
          <leafValues>
            6.4753121137619019e-01 -2.7194675803184509e-01</leafValues></_>
        <_>
          <internalNodes>
            0 -1 63 1.1195394396781921e-01</internalNodes>
          <leafValues>
            -2.3659136891365051e-01 6.0463964939117432e-01</leafValues></_>
        <_>
          <internalNodes>
            0 -1 26 2.7179466560482979e-03</internalNodes>
          <leafValues>
            3.0845808982849121e-01 -5.2906572818756104e-01</leafValues></_>
        <_>
          <internalNodes>
            0 -1 50 -9.2143524670973420e-04</internalNodes>
          <leafValues>
            -8.3333814144134521e-01 1.7465430498123169e-01</leafValues></_>
        <_>
          <internalNodes>
            0 -1 20 2.0110872574150562e-03</internalNodes>
          <leafValues>
            8.4788426756858826e-02 -9.1672843694686890e-01</leafValues></_>
        <_>
          <internalNodes>
            0 -1 46 -2.4196356534957886e-01</internalNodes>
          <leafValues>
            6.4110887050628662e-01 -2.0452454686164856e-01</leafValues></_>
        <_>
          <internalNodes>
            0 -1 95 -5.0294131040573120e-02</internalNodes>
          <leafValues>
            6.4705049991607666e-01 -1.9881673157215118e-01</leafValues></_>
        <_>
          <internalNodes>
            0 -1 2 2.8265721630305052e-04</internalNodes>
          <leafValues>
            1.4907144010066986e-01 -7.3438185453414917e-01</leafValues></_>
        <_>
          <internalNodes>
            0 -1 159 -1.1039741802960634e-03</internalNodes>
          <leafValues>
            -9.3943464756011963e-01 9.0806603431701660e-02</leafValues></_>
        <_>
          <internalNodes>
            0 -1 149 -1.1410666629672050e-03</internalNodes>
          <leafValues>
            -8.3901882171630859e-01 7.6514907181262970e-02</leafValues></_>
        <_>
          <internalNodes>
            0 -1 98 -6.7310727899894118e-05</internalNodes>
          <leafValues>
            3.3678004145622253e-01 -2.8946930170059204e-01</leafValues></_>
        <_>
          <internalNodes>
            0 -1 1 -5.3861923515796661e-04</internalNodes>
          <leafValues>
            -8.6659896373748779e-01 1.0108455270528793e-01</leafValues></_>
        <_>
          <internalNodes>
            0 -1 140 2.1981319878250360e-04</internalNodes>
          <leafValues>
            -2.9957708716392517e-01 2.9472154378890991e-01</leafValues></_>
        <_>
          <internalNodes>
            0 -1 167 3.3667583484202623e-03</internalNodes>
          <leafValues>
            -2.3167881369590759e-01 3.9227318763732910e-01</leafValues></_>
        <_>
          <internalNodes>
            0 -1 155 -3.0265201348811388e-04</internalNodes>
          <leafValues>
            -5.1354598999023438e-01 1.6753818094730377e-01</leafValues></_>
        <_>
          <internalNodes>
            0 -1 96 1.6091682016849518e-02</internalNodes>
          <leafValues>
            -2.1464620530605316e-01 4.1142344474792480e-01</leafValues></_></weakClassifiers></_>
    <!-- stage 1 -->
    <_>
      <maxWeakCount>28</maxWeakCount>
      <stageThreshold>-1.3407371044158936e+00</stageThreshold>
      <weakClassifiers>
        <_>
          <internalNodes>
            0 -1 11 -3.6282807588577271e-02</internalNodes>
          <leafValues>
            3.2227185368537903e-01 -6.3171654939651489e-01</leafValues></_>
        <_>
          <internalNodes>
            0 -1 130 5.8396138250827789e-02</internalNodes>
          <leafValues>
            -4.1142013669013977e-01 3.8485160470008850e-01</leafValues></_>
        <_>
          <internalNodes>
            0 -1 142 -1.3841635081917048e-03</internalNodes>
          <leafValues>
            -9.0157425403594971e-01 1.7378197610378265e-01</leafValues></_>
        <_>
          <internalNodes>
            0 -1 138 1.0126661509275436e-03</internalNodes>
          <leafValues>
            -3.5013109445571899e-01 3.1907159090042114e-01</leafValues></_>
        <_>
          <internalNodes>
            0 -1 8 6.7906775511801243e-03</internalNodes>
          <leafValues>
            1.3276039063930511e-01 -8.3312839269638062e-01</leafValues></_>
        <_>
          <internalNodes>
            0 -1 133 2.5702258571982384e-03</internalNodes>
          <leafValues>
            7.2832703590393066e-02 -9.1592049598693848e-01</leafValues></_>
        <_>
          <internalNodes>
            0 -1 86 -2.4727277923375368e-04</internalNodes>
          <leafValues>
            3.2161626219749451e-01 -2.8510305285453796e-01</leafValues></_>
        <_>
          <internalNodes>
            0 -1 173 3.1582673545926809e-04</internalNodes>
          <leafValues>
            9.9014416337013245e-02 -8.1774371862411499e-01</leafValues></_>
        <_>
          <internalNodes>
            0 -1 172 3.8197520188987255e-04</internalNodes>
          <leafValues>
            6.6469244658946991e-02 -8.8749903440475464e-01</leafValues></_>
        <_>
          <internalNodes>
            0 -1 19 -1.7542764544487000e-03</internalNodes>
          <leafValues>
            -7.5350916385650635e-01 7.9698905348777771e-02</leafValues></_>
        <_>
          <internalNodes>
            0 -1 97 1.5464299358427525e-03</internalNodes>
          <leafValues>
            -1.8236574530601501e-01 4.4750759005546570e-01</leafValues></_>
        <_>
          <internalNodes>
            0 -1 12 9.1452069580554962e-02</internalNodes>
          <leafValues>
            -1.0808043926954269e-01 7.4443542957305908e-01</leafValues></_>
        <_>
          <internalNodes>
            0 -1 122 -2.1365677821449935e-04</internalNodes>
          <leafValues>
            -4.9206894636154175e-01 2.0205873250961304e-01</leafValues></_>
        <_>
          <internalNodes>
            0 -1 33 1.4394829049706459e-03</internalNodes>
          <leafValues>
            8.2501545548439026e-02 -8.5450649261474609e-01</leafValues></_>
        <_>
          <internalNodes>
            0 -1 127 2.7199675969313830e-05</internalNodes>
          <leafValues>
            -2.7430120110511780e-01 2.6278796792030334e-01</leafValues></_>
        <_>
          <internalNodes>
            0 -1 52 -7.5141288107261062e-04</internalNodes>
          <leafValues>
            -5.1270109415054321e-01 1.2274044752120972e-01</leafValues></_>
        <_>
          <internalNodes>
            0 -1 6 -4.0993513539433479e-03</internalNodes>
          <leafValues>
            3.0240216851234436e-01 -2.4867764115333557e-01</leafValues></_>
        <_>
          <internalNodes>
            0 -1 40 5.4363184608519077e-04</internalNodes>
          <leafValues>
            -1.6647151112556458e-01 4.5012506842613220e-01</leafValues></_>
        <_>
          <internalNodes>
            0 -1 158 9.8173390142619610e-04</internalNodes>
          <leafValues>
            -2.1417197585105896e-01 3.0689409375190735e-01</leafValues></_>
        <_>
          <internalNodes>
            0 -1 141 -2.8620957164093852e-04</internalNodes>
          <leafValues>
            -4.5390138030052185e-01 1.8012019991874695e-01</leafValues></_>
        <_>
          <internalNodes>
            0 -1 10 3.2761305919848382e-04</internalNodes>
          <leafValues>
            7.0743232965469360e-02 -8.3929568529129028e-01</leafValues></_>
        <_>
          <internalNodes>
            0 -1 117 3.8821663474664092e-04</internalNodes>
          <leafValues>
            -1.9803184270858765e-01 3.5069948434829712e-01</leafValues></_>
        <_>
          <internalNodes>
            0 -1 34 -2.0346374367363751e-04</internalNodes>
          <leafValues>
            -7.5592142343521118e-01 8.9457467198371887e-02</leafValues></_>
        <_>
          <internalNodes>
            0 -1 139 6.6685439378488809e-05</internalNodes>
          <leafValues>
            -2.2352078557014465e-01 2.6722732186317444e-01</leafValues></_>
        <_>
          <internalNodes>
            0 -1 165 -6.1235768953338265e-05</internalNodes>
          <leafValues>
            -4.8508104681968689e-01 1.2544886767864227e-01</leafValues></_>
        <_>
          <internalNodes>
            0 -1 66 -1.4573943335562944e-03</internalNodes>
          <leafValues>
            3.1700414419174194e-01 -2.1958947181701660e-01</leafValues></_>
        <_>
          <internalNodes>
            0 -1 105 -2.7987742796540260e-02</internalNodes>
          <leafValues>
            3.3583590388298035e-01 -2.0167985558509827e-01</leafValues></_>
        <_>
          <internalNodes>
            0 -1 42 4.5974424574524164e-04</internalNodes>
          <leafValues>
            1.8013821542263031e-01 -4.1901406645774841e-01</leafValues></_></weakClassifiers></_>
    <!-- stage 2 -->
    <_>
      <maxWeakCount>37</maxWeakCount>
      <stageThreshold>-1.2466679811477661e+00</stageThreshold>
      <weakClassifiers>
        <_>
          <internalNodes>
            0 -1 56 -2.4652275443077087e-01</internalNodes>
          <leafValues>
            6.7046451568603516e-01 -6.2936156988143921e-01</leafValues></_>
        <_>
          <internalNodes>
            0 -1 58 -1.0647797025740147e-03</internalNodes>
          <leafValues>
            3.2630109786987305e-01 -3.8896289467811584e-01</leafValues></_>
        <_>
          <internalNodes>
            0 -1 84 -4.9370368942618370e-03</internalNodes>
          <leafValues>
            6.4175689220428467e-01 -1.6188593208789825e-01</leafValues></_>
        <_>
          <internalNodes>
            0 -1 154 -6.6293228883296251e-04</internalNodes>
          <leafValues>
            -7.0699536800384521e-01 8.8300995528697968e-02</leafValues></_>
        <_>
          <internalNodes>
            0 -1 59 4.1903197765350342e-02</internalNodes>
          <leafValues>
            -9.2492014169692993e-02 7.1741044521331787e-01</leafValues></_>
        <_>
          <internalNodes>
            0 -1 14 -3.7911650724709034e-04</internalNodes>
          <leafValues>
            -7.3974305391311646e-01 9.9884152412414551e-02</leafValues></_>
        <_>
          <internalNodes>
            0 -1 41 2.8094276785850525e-03</internalNodes>
          <leafValues>
            -2.0093886554241180e-01 3.5662701725959778e-01</leafValues></_>
        <_>
          <internalNodes>
            0 -1 15 5.3547625429928303e-04</internalNodes>
          <leafValues>
            8.3716668188571930e-02 -7.7044534683227539e-01</leafValues></_>
        <_>
          <internalNodes>
            0 -1 168 1.1988466139882803e-03</internalNodes>
          <leafValues>
            -1.9615069031715393e-01 3.2818430662155151e-01</leafValues></_>
        <_>
          <internalNodes>
            0 -1 135 8.7824228103272617e-05</internalNodes>
          <leafValues>
            -2.0476362109184265e-01 2.7225941419601440e-01</leafValues></_>
        <_>
          <internalNodes>
            0 -1 145 -2.0390143617987633e-04</internalNodes>
          <leafValues>
            -4.7376865148544312e-01 1.2943615019321442e-01</leafValues></_>
        <_>
          <internalNodes>
            0 -1 162 2.4705808027647436e-04</internalNodes>
          <leafValues>
            1.3152182102203369e-01 -4.4585770368576050e-01</leafValues></_>
        <_>
          <internalNodes>
            0 -1 131 7.3432071076240391e-05</internalNodes>
          <leafValues>
            -2.2577850520610809e-01 3.4309640526771545e-01</leafValues></_>
        <_>
          <internalNodes>
            0 -1 103 1.2764087878167629e-03</internalNodes>
          <leafValues>
            -1.7656913399696350e-01 3.3656823635101318e-01</leafValues></_>
        <_>
          <internalNodes>
            0 -1 57 -2.4647579266456887e-05</internalNodes>
          <leafValues>
            -2.6413518190383911e-01 2.0693616569042206e-01</leafValues></_>
        <_>
          <internalNodes>
            0 -1 47 1.0679427214199677e-04</internalNodes>
          <leafValues>
            2.1057018637657166e-01 -3.0331924557685852e-01</leafValues></_>
        <_>
          <internalNodes>
            0 -1 87 2.6286603882908821e-02</internalNodes>
          <leafValues>
            -1.1211217939853668e-01 5.8491253852844238e-01</leafValues></_>
        <_>
          <internalNodes>
            0 -1 67 -6.5857112407684326e-02</internalNodes>
          <leafValues>
            6.2563186883926392e-01 -7.6378740370273590e-02</leafValues></_>
        <_>
          <internalNodes>
            0 -1 170 1.7387760453857481e-04</internalNodes>
          <leafValues>
            8.6605571210384369e-02 -7.3226273059844971e-01</leafValues></_>
        <_>
          <internalNodes>
            0 -1 112 1.5451260842382908e-03</internalNodes>
          <leafValues>
            -1.5823814272880554e-01 3.4695056080818176e-01</leafValues></_>
        <_>
          <internalNodes>
            0 -1 38 -9.7883039416046813e-06</internalNodes>
          <leafValues>
            -2.8757035732269287e-01 2.5268623232841492e-01</leafValues></_>
        <_>
          <internalNodes>
            0 -1 30 -4.9030897207558155e-04</internalNodes>
          <leafValues>
            3.1983184814453125e-01 -1.9467331469058990e-01</leafValues></_>
        <_>
          <internalNodes>
            0 -1 32 7.1920244954526424e-04</internalNodes>
          <leafValues>
            5.6913331151008606e-02 -8.6370694637298584e-01</leafValues></_>
        <_>
          <internalNodes>
            0 -1 31 2.0701246103271842e-04</internalNodes>
          <leafValues>
            -2.0630826056003571e-01 2.8292024135589600e-01</leafValues></_>
        <_>
          <internalNodes>
            0 -1 124 -1.1111187632195652e-04</internalNodes>
          <leafValues>
            -3.1492593884468079e-01 1.8054957687854767e-01</leafValues></_>
        <_>
          <internalNodes>
            0 -1 125 -6.4316089265048504e-05</internalNodes>
          <leafValues>
            2.6587364077568054e-01 -2.1162502467632294e-01</leafValues></_>
        <_>
          <internalNodes>
            0 -1 101 -3.1111524440348148e-03</internalNodes>
          <leafValues>
            5.5256837606430054e-01 -9.4805128872394562e-02</leafValues></_>
        <_>
          <internalNodes>
            0 -1 107 3.4372077789157629e-04</internalNodes>
          <leafValues>
            1.1061204224824905e-01 -5.9720349311828613e-01</leafValues></_>
        <_>
          <internalNodes>
            0 -1 80 -1.6565638361498713e-04</internalNodes>
          <leafValues>
            2.2123420238494873e-01 -2.2583219408988953e-01</leafValues></_>
        <_>
          <internalNodes>
            0 -1 16 7.2703382465988398e-04</internalNodes>
          <leafValues>
            7.6469726860523224e-02 -7.6725226640701294e-01</leafValues></_>
        <_>
          <internalNodes>
            0 -1 65 -9.3435361981391907e-02</internalNodes>
          <leafValues>
            6.9698739051818848e-01 -8.6857043206691742e-02</leafValues></_>
        <_>
          <internalNodes>
            0 -1 72 -1.0612723417580128e-04</internalNodes>
          <leafValues>
            -4.5791676640510559e-01 1.3563291728496552e-01</leafValues></_>
        <_>
          <internalNodes>
            0 -1 123 -1.9776588305830956e-03</internalNodes>
          <leafValues>
            2.3310105502605438e-01 -2.5019711256027222e-01</leafValues></_>
        <_>
          <internalNodes>
            0 -1 152 -3.2221706351265311e-04</internalNodes>
          <leafValues>
            -4.8022478818893433e-01 1.1990118026733398e-01</leafValues></_>
        <_>
          <internalNodes>
            0 -1 110 -3.5467431880533695e-03</internalNodes>
          <leafValues>
            5.2346026897430420e-01 -1.0944502055644989e-01</leafValues></_>
        <_>
          <internalNodes>
            0 -1 36 -2.7066053007729352e-04</internalNodes>
          <leafValues>
            -3.9011791348457336e-01 1.6855995357036591e-01</leafValues></_>
        <_>
          <internalNodes>
            0 -1 91 6.8942358484491706e-04</internalNodes>
          <leafValues>
            -1.7801934480667114e-01 2.9100310802459717e-01</leafValues></_></weakClassifiers></_>
    <!-- stage 3 -->
    <_>
      <maxWeakCount>45</maxWeakCount>
      <stageThreshold>-1.1738216876983643e+00</stageThreshold>
      <weakClassifiers>
        <_>
          <internalNodes>
            0 -1 74 -3.7615749984979630e-02</internalNodes>
          <leafValues>
            3.6875495314598083e-01 -5.6948518753051758e-01</leafValues></_>
        <_>
          <internalNodes>
            0 -1 157 9.8622366786003113e-03</internalNodes>
          <leafValues>
            -3.0589064955711365e-01 3.4658822417259216e-01</leafValues></_>
        <_>
          <internalNodes>
            0 -1 102 -4.3666914280038327e-05</internalNodes>
          <leafValues>
            2.9799741506576538e-01 -2.5257781147956848e-01</leafValues></_>
        <_>
          <internalNodes>
            0 -1 99 2.4835511576384306e-03</internalNodes>
          <leafValues>
            -2.5378203392028809e-01 2.3126322031021118e-01</leafValues></_>
        <_>
          <internalNodes>
            0 -1 62 -1.0861188638955355e-03</internalNodes>
          <leafValues>
            -4.4082796573638916e-01 1.3600990176200867e-01</leafValues></_>
        <_>
          <internalNodes>
            0 -1 25 4.4165167491883039e-04</internalNodes>
          <leafValues>
            2.0398004353046417e-01 -3.8096603751182556e-01</leafValues></_>
        <_>
          <internalNodes>
            0 -1 85 3.4329113550484180e-03</internalNodes>
          <leafValues>
            -1.9493463635444641e-01 3.8163787126541138e-01</leafValues></_>
        <_>
          <internalNodes>
            0 -1 104 2.8486691415309906e-02</internalNodes>
          <leafValues>
            -1.1750278621912003e-01 7.1396887302398682e-01</leafValues></_>
        <_>
          <internalNodes>
            0 -1 134 8.0438988516107202e-04</internalNodes>
          <leafValues>
            -2.0407608151435852e-01 2.9727056622505188e-01</leafValues></_>
        <_>
          <internalNodes>
            0 -1 25 -3.9802558603696525e-04</internalNodes>
          <leafValues>
            -3.7243226170539856e-01 1.7089788615703583e-01</leafValues></_>
        <_>
          <internalNodes>
            0 -1 150 -6.9887127028778195e-04</internalNodes>
          <leafValues>
            -7.1998852491378784e-01 8.4099039435386658e-02</leafValues></_>
        <_>
          <internalNodes>
            0 -1 39 -2.0065330900251865e-03</internalNodes>
          <leafValues>
            2.7238041162490845e-01 -1.9943828880786896e-01</leafValues></_>
        <_>
          <internalNodes>
            0 -1 61 2.6820297352969646e-04</internalNodes>
          <leafValues>
            1.6819851100444794e-01 -3.2219353318214417e-01</leafValues></_>
        <_>
          <internalNodes>
            0 -1 153 4.3100328184664249e-05</internalNodes>
          <leafValues>
            -2.2479370236396790e-01 2.3340220749378204e-01</leafValues></_>
        <_>
          <internalNodes>
            0 -1 90 -3.2272955286316574e-04</internalNodes>
          <leafValues>
            2.3994082212448120e-01 -2.0648461580276489e-01</leafValues></_>
        <_>
          <internalNodes>
            0 -1 18 -1.4289112295955420e-03</internalNodes>
          <leafValues>
            -6.8244665861129761e-01 7.3207050561904907e-02</leafValues></_>
        <_>
          <internalNodes>
            0 -1 24 2.2003924823366106e-04</internalNodes>
          <leafValues>
            1.0724440962076187e-01 -4.0117472410202026e-01</leafValues></_>
        <_>
          <internalNodes>
            0 -1 128 3.7829717621207237e-04</internalNodes>
          <leafValues>
            -1.9303128123283386e-01 2.7937960624694824e-01</leafValues></_>
        <_>
          <internalNodes>
            0 -1 49 -7.8514865890610963e-05</internalNodes>
          <leafValues>
            -2.5971296429634094e-01 2.5000226497650146e-01</leafValues></_>
        <_>
          <internalNodes>
            0 -1 44 -6.3406172557733953e-05</internalNodes>
          <leafValues>
            -2.4077796936035156e-01 2.3564808070659637e-01</leafValues></_>
        <_>
          <internalNodes>
            0 -1 88 -7.3454953962936997e-05</internalNodes>
          <leafValues>
            2.4303735792636871e-01 -2.0022664964199066e-01</leafValues></_>
        <_>
          <internalNodes>
            0 -1 126 -3.2510284334421158e-02</internalNodes>
          <leafValues>
            5.5830633640289307e-01 -8.5519805550575256e-02</leafValues></_>
        <_>
          <internalNodes>
            0 -1 69 1.3811156386509538e-03</internalNodes>
          <leafValues>
            -1.6780599951744080e-01 3.0480247735977173e-01</leafValues></_>
        <_>
          <internalNodes>
            0 -1 27 6.1291770543903112e-04</internalNodes>
          <leafValues>
            5.5635366588830948e-02 -7.8923475742340088e-01</leafValues></_>
        <_>
          <internalNodes>
            0 -1 23 -2.4083326570689678e-03</internalNodes>
          <leafValues>
            -6.1171805858612061e-01 6.5038286149501801e-02</leafValues></_>
        <_>
          <internalNodes>
            0 -1 121 5.1287526730448008e-04</internalNodes>
          <leafValues>
            -1.3002352416515350e-01 3.4951159358024597e-01</leafValues></_>
        <_>
          <internalNodes>
            0 -1 54 -1.0332319652661681e-03</internalNodes>
          <leafValues>
            -2.1020546555519104e-01 2.3027665913105011e-01</leafValues></_>
        <_>
          <internalNodes>
            0 -1 114 -1.9409027299843729e-04</internalNodes>
          <leafValues>
            2.2694221138954163e-01 -2.0460923016071320e-01</leafValues></_>
        <_>
          <internalNodes>
            0 -1 136 -5.2067148499190807e-04</internalNodes>
          <leafValues>
            -4.1688203811645508e-01 1.0561086237430573e-01</leafValues></_>
        <_>
          <internalNodes>
            0 -1 0 -3.1400035368278623e-04</internalNodes>
          <leafValues>
            3.1594526767730713e-01 -1.4472013711929321e-01</leafValues></_>
        <_>
          <internalNodes>
            0 -1 148 -9.3069495051167905e-05</internalNodes>
          <leafValues>
            -2.4927288293838501e-01 1.8815155327320099e-01</leafValues></_>
        <_>
          <internalNodes>
            0 -1 113 5.2843792364001274e-03</internalNodes>
          <leafValues>
            -1.4260728657245636e-01 3.7332120537757874e-01</leafValues></_>
        <_>
          <internalNodes>
            0 -1 118 2.1918737911619246e-04</internalNodes>
          <leafValues>
            6.6517286002635956e-02 -7.4967664480209351e-01</leafValues></_>
        <_>
          <internalNodes>
            0 -1 4 -2.6831133291125298e-03</internalNodes>
          <leafValues>
            -6.9657087326049805e-01 4.9653187394142151e-02</leafValues></_>
        <_>
          <internalNodes>
            0 -1 82 5.7467199862003326e-02</internalNodes>
          <leafValues>
            -9.2087529599666595e-02 5.9291875362396240e-01</leafValues></_>
        <_>
          <internalNodes>
            0 -1 115 9.2523813247680664e-02</internalNodes>
          <leafValues>
            8.1920504570007324e-02 -6.6002446413040161e-01</leafValues></_>
        <_>
          <internalNodes>
            0 -1 155 -1.8871063366532326e-04</internalNodes>
          <leafValues>
            -4.2460995912551880e-01 9.8925791680812836e-02</leafValues></_>
        <_>
          <internalNodes>
            0 -1 129 -2.9052048921585083e-03</internalNodes>
          <leafValues>
            2.8847983479499817e-01 -1.5110751986503601e-01</leafValues></_>
        <_>
          <internalNodes>
            0 -1 60 -1.9072983413934708e-02</internalNodes>
          <leafValues>
            2.4233084917068481e-01 -1.7964522540569305e-01</leafValues></_>
        <_>
          <internalNodes>
            0 -1 151 -2.3213852546177804e-04</internalNodes>
          <leafValues>
            -2.7358189225196838e-01 1.5504360198974609e-01</leafValues></_>
        <_>
          <internalNodes>
            0 -1 163 -6.0400110669434071e-05</internalNodes>
          <leafValues>
            2.8793331980705261e-01 -1.7033815383911133e-01</leafValues></_>
        <_>
          <internalNodes>
            0 -1 37 -1.1043793347198516e-04</internalNodes>
          <leafValues>
            -2.8644803166389465e-01 1.3231588900089264e-01</leafValues></_>
        <_>
          <internalNodes>
            0 -1 81 1.4447095990180969e-01</internalNodes>
          <leafValues>
            -6.1641294509172440e-02 7.5428271293640137e-01</leafValues></_>
        <_>
          <internalNodes>
            0 -1 51 2.0321796182543039e-04</internalNodes>
          <leafValues>
            1.1723414063453674e-01 -3.6375862360000610e-01</leafValues></_>
        <_>
          <internalNodes>
            0 -1 35 5.5614582379348576e-05</internalNodes>
          <leafValues>
            -1.6702271997928619e-01 2.8182962536811829e-01</leafValues></_></weakClassifiers></_>
    <!-- stage 4 -->
    <_>
      <maxWeakCount>51</maxWeakCount>
      <stageThreshold>-1.0850828886032104e+00</stageThreshold>
      <weakClassifiers>
        <_>
          <internalNodes>
            0 -1 100 -6.9587677717208862e-03</internalNodes>
          <leafValues>
            3.6712750792503357e-01 -5.8008658885955811e-01</leafValues></_>
        <_>
          <internalNodes>
            0 -1 75 2.0968396216630936e-02</internalNodes>
          <leafValues>
            -3.3284085988998413e-01 2.8418776392936707e-01</leafValues></_>
        <_>
          <internalNodes>
            0 -1 156 8.1814196892082691e-04</internalNodes>
          <leafValues>
            -2.7781066298484802e-01 2.6189985871315002e-01</leafValues></_>
        <_>
          <internalNodes>
            0 -1 22 -6.4069079235196114e-04</internalNodes>
          <leafValues>
            -5.1550453901290894e-01 1.0878659784793854e-01</leafValues></_>
        <_>
          <internalNodes>
            0 -1 21 6.2489497940987349e-04</internalNodes>
          <leafValues>
            1.4451694488525391e-01 -4.2701137065887451e-01</leafValues></_>
        <_>
          <internalNodes>
            0 -1 93 -1.5794697683304548e-03</internalNodes>
          <leafValues>
            2.1974357962608337e-01 -2.4577081203460693e-01</leafValues></_>
        <_>
          <internalNodes>
            0 -1 174 5.1710577681660652e-03</internalNodes>
          <leafValues>
            3.2236572355031967e-02 -8.2326614856719971e-01</leafValues></_>
        <_>
          <internalNodes>
            0 -1 166 6.6516874358057976e-03</internalNodes>
          <leafValues>
            -1.5586957335472107e-01 3.3310395479202271e-01</leafValues></_>
        <_>
          <internalNodes>
            0 -1 29 3.4013699041679502e-04</internalNodes>
          <leafValues>
            7.7693618834018707e-02 -7.6839810609817505e-01</leafValues></_>
        <_>
          <internalNodes>
            0 -1 89 -5.1620299927890301e-04</internalNodes>
          <leafValues>
            2.0501740276813507e-01 -2.0405699312686920e-01</leafValues></_>
        <_>
          <internalNodes>
            0 -1 92 -3.4690340980887413e-03</internalNodes>
          <leafValues>
            -5.4790496826171875e-01 7.2688780725002289e-02</leafValues></_>
        <_>
          <internalNodes>
            0 -1 171 -7.4084004154428840e-05</internalNodes>
          <leafValues>
            2.5815382599830627e-01 -1.6246581077575684e-01</leafValues></_>
        <_>
          <internalNodes>
            0 -1 161 1.2378155952319503e-03</internalNodes>
          <leafValues>
            5.5448904633522034e-02 -8.3289963006973267e-01</leafValues></_>
        <_>
          <internalNodes>
            0 -1 70 -2.6144122239202261e-04</internalNodes>
          <leafValues>
            2.4223919212818146e-01 -1.7957527935504913e-01</leafValues></_>
        <_>
          <internalNodes>
            0 -1 160 -6.5288337646052241e-04</internalNodes>
          <leafValues>
            -8.3317667245864868e-01 4.4786538928747177e-02</leafValues></_>
        <_>
          <internalNodes>
            0 -1 137 5.9757742565125227e-04</internalNodes>
          <leafValues>
            -1.6136148571968079e-01 3.0728539824485779e-01</leafValues></_>
        <_>
          <internalNodes>
            0 -1 120 -7.7863423939561471e-06</internalNodes>
          <leafValues>
            -2.1085821092128754e-01 2.2949729859828949e-01</leafValues></_>
        <_>
          <internalNodes>
            0 -1 119 7.8655857578269206e-06</internalNodes>
          <leafValues>
            1.9476374983787537e-01 -3.2742732763290405e-01</leafValues></_>
        <_>
          <internalNodes>
            0 -1 7 1.5202620625495911e-01</internalNodes>
          <leafValues>
            -1.4902880787849426e-01 3.8791763782501221e-01</leafValues></_>
        <_>
          <internalNodes>
            0 -1 147 3.9107096381485462e-04</internalNodes>
          <leafValues>
            -1.5913957357406616e-01 2.5977513194084167e-01</leafValues></_>
        <_>
          <internalNodes>
            0 -1 3 1.1593704402912408e-04</internalNodes>
          <leafValues>
            8.1308051943778992e-02 -4.8662704229354858e-01</leafValues></_>
        <_>
          <internalNodes>
            0 -1 83 -6.5770819783210754e-03</internalNodes>
          <leafValues>
            4.1735813021659851e-01 -1.0546284914016724e-01</leafValues></_>
        <_>
          <internalNodes>
            0 -1 78 7.7303611760726199e-06</internalNodes>
          <leafValues>
            1.4433181285858154e-01 -3.0297154188156128e-01</leafValues></_>
        <_>
          <internalNodes>
            0 -1 73 -7.9114624895737506e-06</internalNodes>
          <leafValues>
            -1.8734513223171234e-01 2.4260120093822479e-01</leafValues></_>
        <_>
          <internalNodes>
            0 -1 79 -4.3980489135719836e-04</internalNodes>
          <leafValues>
            2.9266878962516785e-01 -2.0623879134654999e-01</leafValues></_>
        <_>
          <internalNodes>
            0 -1 116 1.5368357999250293e-03</internalNodes>
          <leafValues>
            6.2712185084819794e-02 -6.5806907415390015e-01</leafValues></_>
        <_>
          <internalNodes>
            0 -1 175 -1.0740591678768396e-03</internalNodes>
          <leafValues>
            -8.2985240221023560e-01 2.9661003500223160e-02</leafValues></_>
        <_>
          <internalNodes>
            0 -1 13 -8.0232381820678711e-02</internalNodes>
          <leafValues>
            7.3110276460647583e-01 -5.9350684285163879e-02</leafValues></_>
        <_>
          <internalNodes>
            0 -1 94 -2.8039657045155764e-03</internalNodes>
          <leafValues>
            -6.1510455608367920e-01 7.5053520500659943e-02</leafValues></_>
        <_>
          <internalNodes>
            0 -1 111 1.5387582243420184e-04</internalNodes>
          <leafValues>
            -1.8913306295871735e-01 2.2361968457698822e-01</leafValues></_>
        <_>
          <internalNodes>
            0 -1 53 -5.0690789066720754e-05</internalNodes>
          <leafValues>
            -1.8363484740257263e-01 2.2282464802265167e-01</leafValues></_>
        <_>
          <internalNodes>
            0 -1 5 1.9119470380246639e-04</internalNodes>
          <leafValues>
            1.6231223940849304e-01 -2.9205206036567688e-01</leafValues></_>
        <_>
          <internalNodes>
            0 -1 106 -1.0036331368610263e-03</internalNodes>
          <leafValues>
            3.1819939613342285e-01 -1.3899189233779907e-01</leafValues></_>
        <_>
          <internalNodes>
            0 -1 45 2.5903098285198212e-03</internalNodes>
          <leafValues>
            8.4193050861358643e-02 -5.4111790657043457e-01</leafValues></_>
        <_>
          <internalNodes>
            0 -1 132 9.6314563415944576e-04</internalNodes>
          <leafValues>
            -2.0060919225215912e-01 1.8506079912185669e-01</leafValues></_>
        <_>
          <internalNodes>
            0 -1 164 1.1869021691381931e-03</internalNodes>
          <leafValues>
            -2.0424750447273254e-01 2.2096483409404755e-01</leafValues></_>
        <_>
          <internalNodes>
            0 -1 169 7.8515516361221671e-04</internalNodes>
          <leafValues>
            5.0755988806486130e-02 -7.7609831094741821e-01</leafValues></_>
        <_>
          <internalNodes>
            0 -1 71 -1.9815811538137496e-04</internalNodes>
          <leafValues>
            -6.6153013706207275e-01 4.1460972279310226e-02</leafValues></_>
        <_>
          <internalNodes>
            0 -1 43 -2.1752227621618658e-04</internalNodes>
          <leafValues>
            2.1341468393802643e-01 -1.4902614057064056e-01</leafValues></_>
        <_>
          <internalNodes>
            0 -1 17 8.1369597464799881e-03</internalNodes>
          <leafValues>
            -1.2664814293384552e-01 2.7952456474304199e-01</leafValues></_>
        <_>
          <internalNodes>
            0 -1 108 -5.3162172436714172e-02</internalNodes>
          <leafValues>
            -4.4456183910369873e-01 7.7614955604076385e-02</leafValues></_>
        <_>
          <internalNodes>
            0 -1 146 -1.9970713765360415e-04</internalNodes>
          <leafValues>
            -2.9924589395523071e-01 1.0985007137060165e-01</leafValues></_>
        <_>
          <internalNodes>
            0 -1 68 -4.6694144839420915e-04</internalNodes>
          <leafValues>
            2.1797075867652893e-01 -1.7097832262516022e-01</leafValues></_>
        <_>
          <internalNodes>
            0 -1 143 1.5256977349054068e-04</internalNodes>
          <leafValues>
            1.0395137220621109e-01 -3.3484479784965515e-01</leafValues></_>
        <_>
          <internalNodes>
            0 -1 64 2.8276217635720968e-03</internalNodes>
          <leafValues>
            -1.0060995072126389e-01 3.5645946860313416e-01</leafValues></_>
        <_>
          <internalNodes>
            0 -1 28 -7.2010602707450744e-06</internalNodes>
          <leafValues>
            -1.7746514081954956e-01 1.8922472000122070e-01</leafValues></_>
        <_>
          <internalNodes>
            0 -1 109 -4.3963845819234848e-03</internalNodes>
          <leafValues>
            -7.1172457933425903e-01 4.9895565956830978e-02</leafValues></_>
        <_>
          <internalNodes>
            0 -1 77 5.0164329877588898e-05</internalNodes>
          <leafValues>
            -1.5591400861740112e-01 2.1756391227245331e-01</leafValues></_>
        <_>
          <internalNodes>
            0 -1 76 4.6313710510730743e-02</internalNodes>
          <leafValues>
            -5.3525634109973907e-02 6.0230612754821777e-01</leafValues></_>
        <_>
          <internalNodes>
            0 -1 23 4.3467216892167926e-04</internalNodes>
          <leafValues>
            1.2534499168395996e-01 -3.0304610729217529e-01</leafValues></_>
        <_>
          <internalNodes>
            0 -1 48 -1.0764703154563904e-01</internalNodes>
          <leafValues>
            3.8025668263435364e-01 -9.9047563970088959e-02</leafValues></_></weakClassifiers></_></stages>
  <features>
    <_>
      <rects>
        <_>
          0 0 2 2 -1.</_>
        <_>
          1 0 1 2 2.</_></rects>
      <tilted>0</tilted></_>
    <_>
      <rects>
        <_>
          0 0 2 3 -1.</_>
        <_>
          0 1 2 1 3.</_></rects>
      <tilted>0</tilted></_>
    <_>
      <rects>
        <_>
          0 0 3 2 -1.</_>
        <_>
          0 1 3 1 2.</_></rects>
      <tilted>0</tilted></_>
    <_>
      <rects>
        <_>
          0 1 1 3 -1.</_>
        <_>
          0 2 1 1 3.</_></rects>
      <tilted>0</tilted></_>
    <_>
      <rects>
        <_>
          0 1 1 9 -1.</_>
        <_>
          0 4 1 3 3.</_></rects>
      <tilted>0</tilted></_>
    <_>
      <rects>
        <_>
          0 1 40 18 -1.</_>
        <_>
          0 7 40 6 3.</_></rects>
      <tilted>0</tilted></_>
    <_>
      <rects>
        <_>
          0 2 6 8 -1.</_>
        <_>
          3 2 3 8 2.</_></rects>
      <tilted>0</tilted></_>
    <_>
      <rects>
        <_>
          0 3 39 9 -1.</_>
        <_>
          13 3 13 9 3.</_></rects>
      <tilted>0</tilted></_>
    <_>
      <rects>
        <_>
          0 4 3 9 -1.</_>
        <_>
          0 7 3 3 3.</_></rects>
      <tilted>0</tilted></_>
    <_>
      <rects>
        <_>
          0 4 12 6 -1.</_>
        <_>
          6 4 6 6 2.</_></rects>
      <tilted>0</tilted></_>
    <_>
      <rects>
        <_>
          0 5 1 3 -1.</_>
        <_>
          0 6 1 1 3.</_></rects>
      <tilted>0</tilted></_>
    <_>
      <rects>
        <_>
          0 6 12 5 -1.</_>
        <_>
          6 6 6 5 2.</_></rects>
      <tilted>0</tilted></_>
    <_>
      <rects>
        <_>
          0 6 39 2 -1.</_>
        <_>
          13 6 13 2 3.</_></rects>
      <tilted>0</tilted></_>
    <_>
      <rects>
        <_>
          0 7 28 6 -1.</_>
        <_>
          0 7 14 3 2.</_>
        <_>
          14 10 14 3 2.</_></rects>
      <tilted>0</tilted></_>
    <_>
      <rects>
        <_>
          0 8 2 3 -1.</_>
        <_>
          0 9 2 1 3.</_></rects>
      <tilted>0</tilted></_>
    <_>
      <rects>
        <_>
          0 8 3 3 -1.</_>
        <_>
          0 9 3 1 3.</_></rects>
      <tilted>0</tilted></_>
    <_>
      <rects>
        <_>
          0 11 4 3 -1.</_>
        <_>
          0 12 4 1 3.</_></rects>
      <tilted>0</tilted></_>
    <_>
      <rects>
        <_>
          0 11 18 3 -1.</_>
        <_>
          6 11 6 3 3.</_></rects>
      <tilted>0</tilted></_>
    <_>
      <rects>
        <_>
          0 14 12 3 -1.</_>
        <_>
          0 15 12 1 3.</_></rects>
      <tilted>0</tilted></_>
    <_>
      <rects>
        <_>
          0 15 13 3 -1.</_>
        <_>
          0 16 13 1 3.</_></rects>
      <tilted>0</tilted></_>
    <_>
      <rects>
        <_>
          0 17 8 3 -1.</_>
        <_>
          0 18 8 1 3.</_></rects>
      <tilted>0</tilted></_>
    <_>
      <rects>
        <_>
          0 18 11 2 -1.</_>
        <_>
          0 19 11 1 2.</_></rects>
      <tilted>0</tilted></_>
    <_>
      <rects>
        <_>
          0 18 13 2 -1.</_>
        <_>
          0 19 13 1 2.</_></rects>
      <tilted>0</tilted></_>
    <_>
      <rects>
        <_>
          0 18 40 2 -1.</_>
        <_>
          0 18 20 1 2.</_>
        <_>
          20 19 20 1 2.</_></rects>
      <tilted>0</tilted></_>
    <_>
      <rects>
        <_>
          1 0 14 2 -1.</_>
        <_>
          1 1 14 1 2.</_></rects>
      <tilted>0</tilted></_>
    <_>
      <rects>
        <_>
          1 0 38 2 -1.</_>
        <_>
          1 0 19 1 2.</_>
        <_>
          20 1 19 1 2.</_></rects>
      <tilted>0</tilted></_>
    <_>
      <rects>
        <_>
          1 0 39 4 -1.</_>
        <_>
          1 2 39 2 2.</_></rects>
      <tilted>0</tilted></_>
    <_>
      <rects>
        <_>
          1 3 2 3 -1.</_>
        <_>
          1 4 2 1 3.</_></rects>
      <tilted>0</tilted></_>
    <_>
      <rects>
        <_>
          1 4 15 6 -1.</_>
        <_>
          1 6 15 2 3.</_></rects>
      <tilted>0</tilted></_>
    <_>
      <rects>
        <_>
          1 5 1 3 -1.</_>
        <_>
          1 6 1 1 3.</_></rects>
      <tilted>0</tilted></_>
    <_>
      <rects>
        <_>
          1 6 2 6 -1.</_>
        <_>
          2 6 1 6 2.</_></rects>
      <tilted>0</tilted></_>
    <_>
      <rects>
        <_>
          1 10 2 9 -1.</_>
        <_>
          2 10 1 9 2.</_></rects>
      <tilted>0</tilted></_>
    <_>
      <rects>
        <_>
          1 10 2 3 -1.</_>
        <_>
          1 11 2 1 3.</_></rects>
      <tilted>0</tilted></_>
    <_>
      <rects>
        <_>
          1 15 7 3 -1.</_>
        <_>
          1 16 7 1 3.</_></rects>
      <tilted>0</tilted></_>
    <_>
      <rects>
        <_>
          1 17 1 3 -1.</_>
        <_>
          1 18 1 1 3.</_></rects>
      <tilted>0</tilted></_>
    <_>
      <rects>
        <_>
          1 18 2 1 -1.</_>
        <_>
          2 18 1 1 2.</_></rects>
      <tilted>0</tilted></_>
    <_>
      <rects>
        <_>
          1 18 38 2 -1.</_>
        <_>
          1 18 19 1 2.</_>
        <_>
          20 19 19 1 2.</_></rects>
      <tilted>0</tilted></_>
    <_>
      <rects>
        <_>
          2 0 15 3 -1.</_>
        <_>
          2 1 15 1 3.</_></rects>
      <tilted>0</tilted></_>
    <_>
      <rects>
        <_>
          2 1 7 18 -1.</_>
        <_>
          2 7 7 6 3.</_></rects>
      <tilted>0</tilted></_>
    <_>
      <rects>
        <_>
          2 6 4 3 -1.</_>
        <_>
          4 6 2 3 2.</_></rects>
      <tilted>0</tilted></_>
    <_>
      <rects>
        <_>
          2 12 2 4 -1.</_>
        <_>
          3 12 1 4 2.</_></rects>
      <tilted>0</tilted></_>
    <_>
      <rects>
        <_>
          2 16 12 2 -1.</_>
        <_>
          6 16 4 2 3.</_></rects>
      <tilted>0</tilted></_>
    <_>
      <rects>
        <_>
          2 18 38 2 -1.</_>
        <_>
          2 18 19 1 2.</_>
        <_>
          21 19 19 1 2.</_></rects>
      <tilted>0</tilted></_>
    <_>
      <rects>
        <_>
          3 0 2 2 -1.</_>
        <_>
          4 0 1 2 2.</_></rects>
      <tilted>0</tilted></_>
    <_>
      <rects>
        <_>
          3 0 15 9 -1.</_>
        <_>
          3 3 15 3 3.</_></rects>
      <tilted>0</tilted></_>
    <_>
      <rects>
        <_>
          3 0 36 2 -1.</_>
        <_>
          3 0 18 1 2.</_>
        <_>
          21 1 18 1 2.</_></rects>
      <tilted>0</tilted></_>
    <_>
      <rects>
        <_>
          3 0 34 15 -1.</_>
        <_>
          3 5 34 5 3.</_></rects>
      <tilted>0</tilted></_>
    <_>
      <rects>
        <_>
          3 1 5 18 -1.</_>
        <_>
          3 7 5 6 3.</_></rects>
      <tilted>0</tilted></_>
    <_>
      <rects>
        <_>
          3 3 24 16 -1.</_>
        <_>
          3 3 12 8 2.</_>
        <_>
          15 11 12 8 2.</_></rects>
      <tilted>0</tilted></_>
    <_>
      <rects>
        <_>
          3 7 29 6 -1.</_>
        <_>
          3 9 29 2 3.</_></rects>
      <tilted>0</tilted></_>
    <_>
      <rects>
        <_>
          3 17 6 3 -1.</_>
        <_>
          3 18 6 1 3.</_></rects>
      <tilted>0</tilted></_>
    <_>
      <rects>
        <_>
          3 18 6 2 -1.</_>
        <_>
          3 18 3 1 2.</_>
        <_>
          6 19 3 1 2.</_></rects>
      <tilted>0</tilted></_>
    <_>
      <rects>
        <_>
          4 1 11 3 -1.</_>
        <_>
          4 2 11 1 3.</_></rects>
      <tilted>0</tilted></_>
    <_>
      <rects>
        <_>
          4 1 33 18 -1.</_>
        <_>
          4 7 33 6 3.</_></rects>
      <tilted>0</tilted></_>
    <_>
      <rects>
        <_>
          4 4 36 6 -1.</_>
        <_>
          4 6 36 2 3.</_></rects>
      <tilted>0</tilted></_>
    <_>
      <rects>
        <_>
          4 17 33 3 -1.</_>
        <_>
          15 17 11 3 3.</_></rects>
      <tilted>0</tilted></_>
    <_>
      <rects>
        <_>
          5 0 35 15 -1.</_>
        <_>
          5 5 35 5 3.</_></rects>
      <tilted>0</tilted></_>
    <_>
      <rects>
        <_>
          5 4 3 12 -1.</_>
        <_>
          5 8 3 4 3.</_></rects>
      <tilted>0</tilted></_>
    <_>
      <rects>
        <_>
          5 5 2 8 -1.</_>
        <_>
          6 5 1 8 2.</_></rects>
      <tilted>0</tilted></_>
    <_>
      <rects>
        <_>
          5 6 33 1 -1.</_>
        <_>
          16 6 11 1 3.</_></rects>
      <tilted>0</tilted></_>
    <_>
      <rects>
        <_>
          5 7 12 9 -1.</_>
        <_>
          9 7 4 9 3.</_></rects>
      <tilted>0</tilted></_>
    <_>
      <rects>
        <_>
          6 0 32 2 -1.</_>
        <_>
          6 0 16 1 2.</_>
        <_>
          22 1 16 1 2.</_></rects>
      <tilted>0</tilted></_>
    <_>
      <rects>
        <_>
          6 0 34 2 -1.</_>
        <_>
          6 0 17 1 2.</_>
        <_>
          23 1 17 1 2.</_></rects>
      <tilted>0</tilted></_>
    <_>
      <rects>
        <_>
          6 1 20 14 -1.</_>
        <_>
          16 1 10 14 2.</_></rects>
      <tilted>0</tilted></_>
    <_>
      <rects>
        <_>
          6 4 6 6 -1.</_>
        <_>
          6 4 3 3 2.</_>
        <_>
          9 7 3 3 2.</_></rects>
      <tilted>0</tilted></_>
    <_>
      <rects>
        <_>
          6 4 22 9 -1.</_>
        <_>
          6 7 22 3 3.</_></rects>
      <tilted>0</tilted></_>
    <_>
      <rects>
        <_>
          6 5 2 14 -1.</_>
        <_>
          7 5 1 14 2.</_></rects>
      <tilted>0</tilted></_>
    <_>
      <rects>
        <_>
          6 5 28 8 -1.</_>
        <_>
          6 9 28 4 2.</_></rects>
      <tilted>0</tilted></_>
    <_>
      <rects>
        <_>
          6 6 2 3 -1.</_>
        <_>
          7 6 1 3 2.</_></rects>
      <tilted>0</tilted></_>
    <_>
      <rects>
        <_>
          6 12 13 2 -1.</_>
        <_>
          6 13 13 1 2.</_></rects>
      <tilted>0</tilted></_>
    <_>
      <rects>
        <_>
          6 13 2 2 -1.</_>
        <_>
          7 13 1 2 2.</_></rects>
      <tilted>0</tilted></_>
    <_>
      <rects>
        <_>
          6 17 1 3 -1.</_>
        <_>
          6 18 1 1 3.</_></rects>
      <tilted>0</tilted></_>
    <_>
      <rects>
        <_>
          6 18 4 2 -1.</_>
        <_>
          6 19 4 1 2.</_></rects>
      <tilted>0</tilted></_>
    <_>
      <rects>
        <_>
          7 1 11 18 -1.</_>
        <_>
          7 7 11 6 3.</_></rects>
      <tilted>0</tilted></_>
    <_>
      <rects>
        <_>
          7 1 29 4 -1.</_>
        <_>
          7 3 29 2 2.</_></rects>
      <tilted>0</tilted></_>
    <_>
      <rects>
        <_>
          7 6 4 14 -1.</_>
        <_>
          7 13 4 7 2.</_></rects>
      <tilted>0</tilted></_>
    <_>
      <rects>
        <_>
          7 6 26 4 -1.</_>
        <_>
          7 8 26 2 2.</_></rects>
      <tilted>0</tilted></_>
    <_>
      <rects>
        <_>
          8 1 3 1 -1.</_>
        <_>
          9 1 1 1 3.</_></rects>
      <tilted>0</tilted></_>
    <_>
      <rects>
        <_>
          8 1 9 18 -1.</_>
        <_>
          8 7 9 6 3.</_></rects>
      <tilted>0</tilted></_>
    <_>
      <rects>
        <_>
          8 4 6 2 -1.</_>
        <_>
          8 5 6 1 2.</_></rects>
      <tilted>0</tilted></_>
    <_>
      <rects>
        <_>
          8 12 2 5 -1.</_>
        <_>
          9 12 1 5 2.</_></rects>
      <tilted>0</tilted></_>
    <_>
      <rects>
        <_>
          9 0 20 15 -1.</_>
        <_>
          9 5 20 5 3.</_></rects>
      <tilted>0</tilted></_>
    <_>
      <rects>
        <_>
          10 5 18 6 -1.</_>
        <_>
          10 8 18 3 2.</_></rects>
      <tilted>0</tilted></_>
    <_>
      <rects>
        <_>
          10 11 6 8 -1.</_>
        <_>
          10 15 6 4 2.</_></rects>
      <tilted>0</tilted></_>
    <_>
      <rects>
        <_>
          11 1 13 2 -1.</_>
        <_>
          11 2 13 1 2.</_></rects>
      <tilted>0</tilted></_>
    <_>
      <rects>
        <_>
          11 10 16 2 -1.</_>
        <_>
          11 11 16 1 2.</_></rects>
      <tilted>0</tilted></_>
    <_>
      <rects>
        <_>
          11 18 4 1 -1.</_>
        <_>
          13 18 2 1 2.</_></rects>
      <tilted>0</tilted></_>
    <_>
      <rects>
        <_>
          12 4 13 6 -1.</_>
        <_>
          12 7 13 3 2.</_></rects>
      <tilted>0</tilted></_>
    <_>
      <rects>
        <_>
          12 18 2 1 -1.</_>
        <_>
          13 18 1 1 2.</_></rects>
      <tilted>0</tilted></_>
    <_>
      <rects>
        <_>
          13 0 6 2 -1.</_>
        <_>
          15 0 2 2 3.</_></rects>
      <tilted>0</tilted></_>
    <_>
      <rects>
        <_>
          13 2 9 1 -1.</_>
        <_>
          16 2 3 1 3.</_></rects>
      <tilted>0</tilted></_>
    <_>
      <rects>
        <_>
          13 5 2 8 -1.</_>
        <_>
          14 5 1 8 2.</_></rects>
      <tilted>0</tilted></_>
    <_>
      <rects>
        <_>
          13 18 9 1 -1.</_>
        <_>
          16 18 3 1 3.</_></rects>
      <tilted>0</tilted></_>
    <_>
      <rects>
        <_>
          13 18 12 2 -1.</_>
        <_>
          17 18 4 2 3.</_></rects>
      <tilted>0</tilted></_>
    <_>
      <rects>
        <_>
          14 0 18 2 -1.</_>
        <_>
          14 0 9 1 2.</_>
        <_>
          23 1 9 1 2.</_></rects>
      <tilted>0</tilted></_>
    <_>
      <rects>
        <_>
          14 6 26 3 -1.</_>
        <_>
          27 6 13 3 2.</_></rects>
      <tilted>0</tilted></_>
    <_>
      <rects>
        <_>
          14 8 14 12 -1.</_>
        <_>
          14 12 14 4 3.</_></rects>
      <tilted>0</tilted></_>
    <_>
      <rects>
        <_>
          14 9 6 2 -1.</_>
        <_>
          14 10 6 1 2.</_></rects>
      <tilted>0</tilted></_>
    <_>
      <rects>
        <_>
          14 18 2 2 -1.</_>
        <_>
          15 18 1 2 2.</_></rects>
      <tilted>0</tilted></_>
    <_>
      <rects>
        <_>
          15 1 4 15 -1.</_>
        <_>
          17 1 2 15 2.</_></rects>
      <tilted>0</tilted></_>
    <_>
      <rects>
        <_>
          15 1 18 2 -1.</_>
        <_>
          15 2 18 1 2.</_></rects>
      <tilted>0</tilted></_>
    <_>
      <rects>
        <_>
          15 16 14 2 -1.</_>
        <_>
          15 17 14 1 2.</_></rects>
      <tilted>0</tilted></_>
    <_>
      <rects>
        <_>
          15 19 2 1 -1.</_>
        <_>
          16 19 1 1 2.</_></rects>
      <tilted>0</tilted></_>
    <_>
      <rects>
        <_>
          17 1 2 10 -1.</_>
        <_>
          18 1 1 10 2.</_></rects>
      <tilted>0</tilted></_>
    <_>
      <rects>
        <_>
          17 1 9 6 -1.</_>
        <_>
          17 4 9 3 2.</_></rects>
      <tilted>0</tilted></_>
    <_>
      <rects>
        <_>
          17 4 20 5 -1.</_>
        <_>
          27 4 10 5 2.</_></rects>
      <tilted>0</tilted></_>
    <_>
      <rects>
        <_>
          17 15 8 2 -1.</_>
        <_>
          17 16 8 1 2.</_></rects>
      <tilted>0</tilted></_>
    <_>
      <rects>
        <_>
          17 18 6 2 -1.</_>
        <_>
          17 18 3 1 2.</_>
        <_>
          20 19 3 1 2.</_></rects>
      <tilted>0</tilted></_>
    <_>
      <rects>
        <_>
          18 10 15 10 -1.</_>
        <_>
          23 10 5 10 3.</_></rects>
      <tilted>0</tilted></_>
    <_>
      <rects>
        <_>
          18 12 9 1 -1.</_>
        <_>
          21 12 3 1 3.</_></rects>
      <tilted>0</tilted></_>
    <_>
      <rects>
        <_>
          19 1 12 2 -1.</_>
        <_>
          19 2 12 1 2.</_></rects>
      <tilted>0</tilted></_>
    <_>
      <rects>
        <_>
          19 10 2 2 -1.</_>
        <_>
          19 11 2 1 2.</_></rects>
      <tilted>0</tilted></_>
    <_>
      <rects>
        <_>
          19 10 3 4 -1.</_>
        <_>
          19 12 3 2 2.</_></rects>
      <tilted>0</tilted></_>
    <_>
      <rects>
        <_>
          19 11 7 4 -1.</_>
        <_>
          19 13 7 2 2.</_></rects>
      <tilted>0</tilted></_>
    <_>
      <rects>
        <_>
          19 19 9 1 -1.</_>
        <_>
          22 19 3 1 3.</_></rects>
      <tilted>0</tilted></_>
    <_>
      <rects>
        <_>
          20 0 5 20 -1.</_>
        <_>
          20 10 5 10 2.</_></rects>
      <tilted>0</tilted></_>
    <_>
      <rects>
        <_>
          20 13 4 4 -1.</_>
        <_>
          20 13 2 2 2.</_>
        <_>
          22 15 2 2 2.</_></rects>
      <tilted>0</tilted></_>
    <_>
      <rects>
        <_>
          21 7 4 1 -1.</_>
        <_>
          23 7 2 1 2.</_></rects>
      <tilted>0</tilted></_>
    <_>
      <rects>
        <_>
          22 18 2 2 -1.</_>
        <_>
          22 18 1 1 2.</_>
        <_>
          23 19 1 1 2.</_></rects>
      <tilted>0</tilted></_>
    <_>
      <rects>
        <_>
          23 1 6 18 -1.</_>
        <_>
          23 7 6 6 3.</_></rects>
      <tilted>0</tilted></_>
    <_>
      <rects>
        <_>
          23 1 8 18 -1.</_>
        <_>
          23 7 8 6 3.</_></rects>
      <tilted>0</tilted></_>
    <_>
      <rects>
        <_>
          23 8 2 2 -1.</_>
        <_>
          23 9 2 1 2.</_></rects>
      <tilted>0</tilted></_>
    <_>
      <rects>
        <_>
          24 0 16 2 -1.</_>
        <_>
          24 0 8 1 2.</_>
        <_>
          32 1 8 1 2.</_></rects>
      <tilted>0</tilted></_>
    <_>
      <rects>
        <_>
          24 1 6 12 -1.</_>
        <_>
          27 1 3 12 2.</_></rects>
      <tilted>0</tilted></_>
    <_>
      <rects>
        <_>
          24 1 16 3 -1.</_>
        <_>
          24 2 16 1 3.</_></rects>
      <tilted>0</tilted></_>
    <_>
      <rects>
        <_>
          25 1 3 2 -1.</_>
        <_>
          26 1 1 2 3.</_></rects>
      <tilted>0</tilted></_>
    <_>
      <rects>
        <_>
          25 4 12 4 -1.</_>
        <_>
          31 4 6 4 2.</_></rects>
      <tilted>0</tilted></_>
    <_>
      <rects>
        <_>
          25 18 2 1 -1.</_>
        <_>
          26 18 1 1 2.</_></rects>
      <tilted>0</tilted></_>
    <_>
      <rects>
        <_>
          26 11 3 2 -1.</_>
        <_>
          26 12 3 1 2.</_></rects>
      <tilted>0</tilted></_>
    <_>
      <rects>
        <_>
          27 3 6 12 -1.</_>
        <_>
          27 3 3 6 2.</_>
        <_>
          30 9 3 6 2.</_></rects>
      <tilted>0</tilted></_>
    <_>
      <rects>
        <_>
          27 4 9 16 -1.</_>
        <_>
          27 12 9 8 2.</_></rects>
      <tilted>0</tilted></_>
    <_>
      <rects>
        <_>
          27 10 1 2 -1.</_>
        <_>
          27 11 1 1 2.</_></rects>
      <tilted>0</tilted></_>
    <_>
      <rects>
        <_>
          27 15 12 3 -1.</_>
        <_>
          31 15 4 3 3.</_></rects>
      <tilted>0</tilted></_>
    <_>
      <rects>
        <_>
          27 15 13 3 -1.</_>
        <_>
          27 16 13 1 3.</_></rects>
      <tilted>0</tilted></_>
    <_>
      <rects>
        <_>
          27 16 6 2 -1.</_>
        <_>
          30 16 3 2 2.</_></rects>
      <tilted>0</tilted></_>
    <_>
      <rects>
        <_>
          27 18 2 1 -1.</_>
        <_>
          28 18 1 1 2.</_></rects>
      <tilted>0</tilted></_>
    <_>
      <rects>
        <_>
          28 2 12 3 -1.</_>
        <_>
          28 3 12 1 3.</_></rects>
      <tilted>0</tilted></_>
    <_>
      <rects>
        <_>
          28 10 3 2 -1.</_>
        <_>
          28 11 3 1 2.</_></rects>
      <tilted>0</tilted></_>
    <_>
      <rects>
        <_>
          28 15 10 1 -1.</_>
        <_>
          33 15 5 1 2.</_></rects>
      <tilted>0</tilted></_>
    <_>
      <rects>
        <_>
          28 18 2 1 -1.</_>
        <_>
          29 18 1 1 2.</_></rects>
      <tilted>0</tilted></_>
    <_>
      <rects>
        <_>
          28 18 9 1 -1.</_>
        <_>
          31 18 3 1 3.</_></rects>
      <tilted>0</tilted></_>
    <_>
      <rects>
        <_>
          29 3 9 3 -1.</_>
        <_>
          29 4 9 1 3.</_></rects>
      <tilted>0</tilted></_>
    <_>
      <rects>
        <_>
          29 18 11 2 -1.</_>
        <_>
          29 19 11 1 2.</_></rects>
      <tilted>0</tilted></_>
    <_>
      <rects>
        <_>
          30 0 10 2 -1.</_>
        <_>
          30 1 10 1 2.</_></rects>
      <tilted>0</tilted></_>
    <_>
      <rects>
        <_>
          30 4 10 7 -1.</_>
        <_>
          35 4 5 7 2.</_></rects>
      <tilted>0</tilted></_>
    <_>
      <rects>
        <_>
          30 18 10 2 -1.</_>
        <_>
          30 19 10 1 2.</_></rects>
      <tilted>0</tilted></_>
    <_>
      <rects>
        <_>
          31 0 5 2 -1.</_>
        <_>
          31 1 5 1 2.</_></rects>
      <tilted>0</tilted></_>
    <_>
      <rects>
        <_>
          31 3 2 3 -1.</_>
        <_>
          32 3 1 3 2.</_></rects>
      <tilted>0</tilted></_>
    <_>
      <rects>
        <_>
          31 7 7 6 -1.</_>
        <_>
          31 9 7 2 3.</_></rects>
      <tilted>0</tilted></_>
    <_>
      <rects>
        <_>
          31 15 7 3 -1.</_>
        <_>
          31 16 7 1 3.</_></rects>
      <tilted>0</tilted></_>
    <_>
      <rects>
        <_>
          31 17 5 3 -1.</_>
        <_>
          31 18 5 1 3.</_></rects>
      <tilted>0</tilted></_>
    <_>
      <rects>
        <_>
          32 9 8 6 -1.</_>
        <_>
          32 11 8 2 3.</_></rects>
      <tilted>0</tilted></_>
    <_>
      <rects>
        <_>
          32 13 8 3 -1.</_>
        <_>
          32 14 8 1 3.</_></rects>
      <tilted>0</tilted></_>
    <_>
      <rects>
        <_>
          32 15 2 1 -1.</_>
        <_>
          33 15 1 1 2.</_></rects>
      <tilted>0</tilted></_>
    <_>
      <rects>
        <_>
          32 15 8 3 -1.</_>
        <_>
          32 16 8 1 3.</_></rects>
      <tilted>0</tilted></_>
    <_>
      <rects>
        <_>
          32 16 8 3 -1.</_>
        <_>
          32 17 8 1 3.</_></rects>
      <tilted>0</tilted></_>
    <_>
      <rects>
        <_>
          33 5 2 10 -1.</_>
        <_>
          34 5 1 10 2.</_></rects>
      <tilted>0</tilted></_>
    <_>
      <rects>
        <_>
          33 5 6 5 -1.</_>
        <_>
          36 5 3 5 2.</_></rects>
      <tilted>0</tilted></_>
    <_>
      <rects>
        <_>
          34 6 2 13 -1.</_>
        <_>
          35 6 1 13 2.</_></rects>
      <tilted>0</tilted></_>
    <_>
      <rects>
        <_>
          34 17 6 3 -1.</_>
        <_>
          34 18 6 1 3.</_></rects>
      <tilted>0</tilted></_>
    <_>
      <rects>
        <_>
          34 18 4 2 -1.</_>
        <_>
          34 19 4 1 2.</_></rects>
      <tilted>0</tilted></_>
    <_>
      <rects>
        <_>
          34 18 5 2 -1.</_>
        <_>
          34 19 5 1 2.</_></rects>
      <tilted>0</tilted></_>
    <_>
      <rects>
        <_>
          34 18 6 2 -1.</_>
        <_>
          34 19 6 1 2.</_></rects>
      <tilted>0</tilted></_>
    <_>
      <rects>
        <_>
          35 2 2 2 -1.</_>
        <_>
          36 2 1 2 2.</_></rects>
      <tilted>0</tilted></_>
    <_>
      <rects>
        <_>
          35 5 2 11 -1.</_>
        <_>
          36 5 1 11 2.</_></rects>
      <tilted>0</tilted></_>
    <_>
      <rects>
        <_>
          35 18 1 2 -1.</_>
        <_>
          35 19 1 1 2.</_></rects>
      <tilted>0</tilted></_>
    <_>
      <rects>
        <_>
          36 5 4 6 -1.</_>
        <_>
          38 5 2 6 2.</_></rects>
      <tilted>0</tilted></_>
    <_>
      <rects>
        <_>
          36 5 4 7 -1.</_>
        <_>
          38 5 2 7 2.</_></rects>
      <tilted>0</tilted></_>
    <_>
      <rects>
        <_>
          37 2 2 8 -1.</_>
        <_>
          38 2 1 8 2.</_></rects>
      <tilted>0</tilted></_>
    <_>
      <rects>
        <_>
          37 11 2 3 -1.</_>
        <_>
          37 12 2 1 3.</_></rects>
      <tilted>0</tilted></_>
    <_>
      <rects>
        <_>
          38 0 1 2 -1.</_>
        <_>
          38 1 1 1 2.</_></rects>
      <tilted>0</tilted></_>
    <_>
      <rects>
        <_>
          38 18 2 2 -1.</_>
        <_>
          39 18 1 2 2.</_></rects>
      <tilted>0</tilted></_>
    <_>
      <rects>
        <_>
          39 0 1 3 -1.</_>
        <_>
          39 1 1 1 3.</_></rects>
      <tilted>0</tilted></_>
    <_>
      <rects>
        <_>
          39 1 1 3 -1.</_>
        <_>
          39 2 1 1 3.</_></rects>
      <tilted>0</tilted></_>
    <_>
      <rects>
        <_>
          39 1 1 12 -1.</_>
        <_>
          39 5 1 4 3.</_></rects>
      <tilted>0</tilted></_>
    <_>
      <rects>
        <_>
          39 13 1 4 -1.</_>
        <_>
          39 15 1 2 2.</_></rects>
      <tilted>0</tilted></_></features></cascade>
</opencv_storage>
